<?xml version="1.0"?>
<opencv_storage>
<stage0>
  <maxWeakCount>9</maxWeakCount>
  <stageThreshold>-2.6587170362472534e-01</stageThreshold>
  <weakClassifiers>
    <_>
      <internalNodes>
        0 -1 139165 -7.7122626826167107e-03</internalNodes>
      <leafValues>
        -5.3488373756408691e-01 4.7859922051429749e-01</leafValues></_>
    <_>
      <internalNodes>
        0 -1 82207 1.0207253508269787e-03</internalNodes>
      <leafValues>
        -2.1815285086631775e-01 7.5295412540435791e-01</leafValues></_>
    <_>
      <internalNodes>
        0 -1 70981 -1.2096203863620758e-02</internalNodes>
      <leafValues>
        7.3161178827285767e-01 -1.9748346507549286e-01</leafValues></_>
    <_>
      <internalNodes>
        0 -1 117875 -1.3649126049131155e-03</internalNodes>
      <leafValues>
        6.4946895837783813e-01 -2.0983886718750000e-01</leafValues></_>
    <_>
      <internalNodes>
        0 -1 153357 -4.5497991959564388e-04</internalNodes>
      <leafValues>
        5.3222388029098511e-01 -3.0870711803436279e-01</leafValues></_>
    <_>
      <internalNodes>
        0 -1 33423 -3.1048454344272614e-02</internalNodes>
      <leafValues>
        7.5282579660415649e-01 -2.1188738942146301e-01</leafValues></_>
    <_>
      <internalNodes>
        0 -1 161179 2.6594824157655239e-03</internalNodes>
      <leafValues>
        2.5005814433097839e-01 -8.3406025171279907e-01</leafValues></_>
    <_>
      <internalNodes>
        0 -1 111013 2.8480277978815138e-04</internalNodes>
      <leafValues>
        -3.6893612146377563e-01 5.7543271780014038e-01</leafValues></_>
    <_>
      <internalNodes>
        0 -1 144140 3.1738262623548508e-03</internalNodes>
      <leafValues>
        -2.7807831764221191e-01 6.7623758316040039e-01</leafValues></_></weakClassifiers></stage0>
</opencv_storage>
