<?xml version="1.0"?>
<opencv_storage>
<stage21>
  <maxWeakCount>13</maxWeakCount>
  <stageThreshold>-6.3893014192581177e-01</stageThreshold>
  <weakClassifiers>
    <_>
      <internalNodes>
        0 -1 86132 -8.9453652501106262e-02</internalNodes>
      <leafValues>
        -1. 4.1342756152153015e-01</leafValues></_>
    <_>
      <internalNodes>
        0 -1 143217 6.6232895478606224e-03</internalNodes>
      <leafValues>
        -1.0721523314714432e-01 1.</leafValues></_>
    <_>
      <internalNodes>
        0 -1 148347 6.5950476564466953e-03</internalNodes>
      <leafValues>
        -1.9270206987857819e-01 7.4457448720932007e-01</leafValues></_>
    <_>
      <internalNodes>
        0 -1 148559 4.4627592433243990e-04</internalNodes>
      <leafValues>
        4.3429347872734070e-01 -2.6337665319442749e-01</leafValues></_>
    <_>
      <internalNodes>
        0 -1 97893 -1.9544139504432678e-03</internalNodes>
      <leafValues>
        7.8745967149734497e-01 -1.6627284884452820e-01</leafValues></_>
    <_>
      <internalNodes>
        0 -1 25515 3.7894533015787601e-03</internalNodes>
      <leafValues>
        -2.3567098379135132e-01 4.9745723605155945e-01</leafValues></_>
    <_>
      <internalNodes>
        0 -1 157202 -2.7491280343383551e-03</internalNodes>
      <leafValues>
        7.2981828451156616e-01 -1.7067724466323853e-01</leafValues></_>
    <_>
      <internalNodes>
        0 -1 126069 -1.8227149266749620e-03</internalNodes>
      <leafValues>
        5.8627939224243164e-01 -1.8144728243350983e-01</leafValues></_>
    <_>
      <internalNodes>
        0 -1 125449 5.6834323331713676e-03</internalNodes>
      <leafValues>
        -1.5240098536014557e-01 7.3580074310302734e-01</leafValues></_>
    <_>
      <internalNodes>
        0 -1 161994 1.2325259158387780e-03</internalNodes>
      <leafValues>
        2.7796509861946106e-01 -4.8009383678436279e-01</leafValues></_>
    <_>
      <internalNodes>
        0 -1 15517 1.4716389123350382e-03</internalNodes>
      <leafValues>
        -2.5386247038841248e-01 5.0056928396224976e-01</leafValues></_>
    <_>
      <internalNodes>
        0 -1 142396 6.9716922007501125e-04</internalNodes>
      <leafValues>
        -1.7306752502918243e-01 6.7034131288528442e-01</leafValues></_>
    <_>
      <internalNodes>
        0 -1 12716 1.4180693775415421e-02</internalNodes>
      <leafValues>
        -1.6675771772861481e-01 7.4568575620651245e-01</leafValues></_></weakClassifiers></stage21>
</opencv_storage>
