<?xml version="1.0"?>
<opencv_storage>
<stage19>
  <maxWeakCount>9</maxWeakCount>
  <stageThreshold>-2.8537577390670776e-01</stageThreshold>
  <weakClassifiers>
    <_>
      <internalNodes>
        0 -1 4681 1.2713009119033813e-01</internalNodes>
      <leafValues>
        4.5247149467468262e-01 -5.1351350545883179e-01</leafValues></_>
    <_>
      <internalNodes>
        0 -1 75733 3.8249404169619083e-03</internalNodes>
      <leafValues>
        -1.5295544266700745e-01 7.0644938945770264e-01</leafValues></_>
    <_>
      <internalNodes>
        0 -1 60540 1.9951486028730869e-03</internalNodes>
      <leafValues>
        3.8209298253059387e-01 -3.3839365839958191e-01</leafValues></_>
    <_>
      <internalNodes>
        0 -1 112521 -7.0759477093815804e-03</internalNodes>
      <leafValues>
        8.2065308094024658e-01 -1.7513187229633331e-01</leafValues></_>
    <_>
      <internalNodes>
        0 -1 77622 1.1373241245746613e-01</internalNodes>
      <leafValues>
        1.7687614262104034e-01 -9.1661435365676880e-01</leafValues></_>
    <_>
      <internalNodes>
        0 -1 96052 1.0841090697795153e-03</internalNodes>
      <leafValues>
        -2.7328312397003174e-01 5.2696371078491211e-01</leafValues></_>
    <_>
      <internalNodes>
        0 -1 119830 1.4031066093593836e-03</internalNodes>
      <leafValues>
        -2.6225930452346802e-01 4.7457775473594666e-01</leafValues></_>
    <_>
      <internalNodes>
        0 -1 127059 2.8962340205907822e-02</internalNodes>
      <leafValues>
        -1.8602934479713440e-01 6.8825089931488037e-01</leafValues></_>
    <_>
      <internalNodes>
        0 -1 4344 -9.4706201925873756e-03</internalNodes>
      <leafValues>
        8.9951723814010620e-01 -8.1419110298156738e-02</leafValues></_></weakClassifiers></stage19>
</opencv_storage>
