<?xml version="1.0"?>
<opencv_storage>
<stage27>
  <maxWeakCount>12</maxWeakCount>
  <stageThreshold>-2.9223769903182983e-01</stageThreshold>
  <weakClassifiers>
    <_>
      <internalNodes>
        0 -1 162189 1.2792568886652589e-03</internalNodes>
      <leafValues>
        4.5384615659713745e-01 -4.4999998807907104e-01</leafValues></_>
    <_>
      <internalNodes>
        0 -1 149636 1.3768194185104221e-04</internalNodes>
      <leafValues>
        -2.4003824591636658e-01 4.7447076439857483e-01</leafValues></_>
    <_>
      <internalNodes>
        0 -1 160671 1.8639706075191498e-02</internalNodes>
      <leafValues>
        2.0645658671855927e-01 -7.0889556407928467e-01</leafValues></_>
    <_>
      <internalNodes>
        0 -1 94713 4.6813482185825706e-04</internalNodes>
      <leafValues>
        -2.3554055392742157e-01 6.8776375055313110e-01</leafValues></_>
    <_>
      <internalNodes>
        0 -1 115136 -2.7063777670264244e-03</internalNodes>
      <leafValues>
        -5.3597021102905273e-01 2.3718401789665222e-01</leafValues></_>
    <_>
      <internalNodes>
        0 -1 135052 -1.4149935450404882e-03</internalNodes>
      <leafValues>
        5.0977814197540283e-01 -2.8295251727104187e-01</leafValues></_>
    <_>
      <internalNodes>
        0 -1 148274 2.7756922645494342e-04</internalNodes>
      <leafValues>
        3.2607233524322510e-01 -4.8174518346786499e-01</leafValues></_>
    <_>
      <internalNodes>
        0 -1 25631 8.0515388399362564e-03</internalNodes>
      <leafValues>
        2.2084857523441315e-01 -6.0379326343536377e-01</leafValues></_>
    <_>
      <internalNodes>
        0 -1 68548 1.4325214579002932e-05</internalNodes>
      <leafValues>
        -3.4278950095176697e-01 4.3979820609092712e-01</leafValues></_>
    <_>
      <internalNodes>
        0 -1 38067 -3.1806630431674421e-04</internalNodes>
      <leafValues>
        -4.2415386438369751e-01 3.6672595143318176e-01</leafValues></_>
    <_>
      <internalNodes>
        0 -1 37814 4.1206867899745703e-04</internalNodes>
      <leafValues>
        -3.3758169412612915e-01 4.6246612071990967e-01</leafValues></_>
    <_>
      <internalNodes>
        0 -1 2285 -1.8890714272856712e-03</internalNodes>
      <leafValues>
        -4.9168854951858521e-01 3.4419181942939758e-01</leafValues></_></weakClassifiers></stage27>
</opencv_storage>
