<?xml version="1.0"?>
<opencv_storage>
<stage20>
  <maxWeakCount>13</maxWeakCount>
  <stageThreshold>-5.8281379938125610e-01</stageThreshold>
  <weakClassifiers>
    <_>
      <internalNodes>
        0 -1 26396 -1.6859057545661926e-01</internalNodes>
      <leafValues>
        -8.3999997377395630e-01 4.3999999761581421e-01</leafValues></_>
    <_>
      <internalNodes>
        0 -1 89878 -7.3318071663379669e-03</internalNodes>
      <leafValues>
        8.4649276733398438e-01 -1.0250943899154663e-01</leafValues></_>
    <_>
      <internalNodes>
        0 -1 46436 -2.6275804266333580e-03</internalNodes>
      <leafValues>
        5.1740473508834839e-01 -2.1608449518680573e-01</leafValues></_>
    <_>
      <internalNodes>
        0 -1 138899 -4.1552868788130581e-04</internalNodes>
      <leafValues>
        -3.7236878275871277e-01 3.4325829148292542e-01</leafValues></_>
    <_>
      <internalNodes>
        0 -1 160303 -1.2872199295088649e-03</internalNodes>
      <leafValues>
        5.0657033920288086e-01 -2.7614653110504150e-01</leafValues></_>
    <_>
      <internalNodes>
        0 -1 48545 -7.8378617763519287e-03</internalNodes>
      <leafValues>
        5.6839179992675781e-01 -2.2072589397430420e-01</leafValues></_>
    <_>
      <internalNodes>
        0 -1 12867 -1.5934689436107874e-03</internalNodes>
      <leafValues>
        6.7320019006729126e-01 -1.8042638897895813e-01</leafValues></_>
    <_>
      <internalNodes>
        0 -1 124309 -9.3923881649971008e-03</internalNodes>
      <leafValues>
        8.3164161443710327e-01 -1.3150452077388763e-01</leafValues></_>
    <_>
      <internalNodes>
        0 -1 131807 -9.0127217117697001e-04</internalNodes>
      <leafValues>
        6.3915330171585083e-01 -2.4183973670005798e-01</leafValues></_>
    <_>
      <internalNodes>
        0 -1 121904 2.1548639051616192e-03</internalNodes>
      <leafValues>
        -1.9420905411243439e-01 6.5240377187728882e-01</leafValues></_>
    <_>
      <internalNodes>
        0 -1 77722 -4.4052869081497192e-02</internalNodes>
      <leafValues>
        -5.8446586132049561e-01 2.6504245400428772e-01</leafValues></_>
    <_>
      <internalNodes>
        0 -1 66395 4.9439687281847000e-03</internalNodes>
      <leafValues>
        -2.5784230232238770e-01 5.9304147958755493e-01</leafValues></_>
    <_>
      <internalNodes>
        0 -1 111779 8.6394369602203369e-02</internalNodes>
      <leafValues>
        1.9017380475997925e-01 -8.1880426406860352e-01</leafValues></_></weakClassifiers></stage20>
</opencv_storage>
