<?xml version="1.0"?>
<opencv_storage>
<stage12>
  <maxWeakCount>8</maxWeakCount>
  <stageThreshold>-2.1424144506454468e-01</stageThreshold>
  <weakClassifiers>
    <_>
      <internalNodes>
        0 -1 103630 -2.8421233873814344e-03</internalNodes>
      <leafValues>
        8.6274510622024536e-01 6.0606062412261963e-02</leafValues></_>
    <_>
      <internalNodes>
        0 -1 86305 -3.7042661570012569e-03</internalNodes>
      <leafValues>
        7.2095179557800293e-01 -1.3937737047672272e-01</leafValues></_>
    <_>
      <internalNodes>
        0 -1 84762 6.2883296050131321e-03</internalNodes>
      <leafValues>
        -1.9405508041381836e-01 8.0569595098495483e-01</leafValues></_>
    <_>
      <internalNodes>
        0 -1 161936 2.3357435129582882e-03</internalNodes>
      <leafValues>
        3.6686715483665466e-01 -4.0142020583152771e-01</leafValues></_>
    <_>
      <internalNodes>
        0 -1 109177 -1.0208669118583202e-02</internalNodes>
      <leafValues>
        8.9765542745590210e-01 -1.8122856318950653e-01</leafValues></_>
    <_>
      <internalNodes>
        0 -1 61436 3.7607345730066299e-03</internalNodes>
      <leafValues>
        2.8395399451255798e-01 -6.0755479335784912e-01</leafValues></_>
    <_>
      <internalNodes>
        0 -1 104019 -2.0760763436555862e-03</internalNodes>
      <leafValues>
        9.5865952968597412e-01 -1.6320501267910004e-01</leafValues></_>
    <_>
      <internalNodes>
        0 -1 62138 1.1654510162770748e-02</internalNodes>
      <leafValues>
        -1.5843288600444794e-01 9.1957497596740723e-01</leafValues></_></weakClassifiers></stage12>
</opencv_storage>
