<?xml version="1.0"?>
<opencv_storage>
<stage23>
  <maxWeakCount>10</maxWeakCount>
  <stageThreshold>-1.9780537113547325e-02</stageThreshold>
  <weakClassifiers>
    <_>
      <internalNodes>
        0 -1 105032 4.6703331172466278e-02</internalNodes>
      <leafValues>
        4.3609023094177246e-01 -4.7058823704719543e-01</leafValues></_>
    <_>
      <internalNodes>
        0 -1 132753 -1.3608243316411972e-03</internalNodes>
      <leafValues>
        9.0070056915283203e-01 -1.1954747140407562e-01</leafValues></_>
    <_>
      <internalNodes>
        0 -1 84713 -1.0094824247062206e-03</internalNodes>
      <leafValues>
        8.6448734998703003e-01 -1.0261621326208115e-01</leafValues></_>
    <_>
      <internalNodes>
        0 -1 147402 1.2858177069574594e-03</internalNodes>
      <leafValues>
        -1.0754641145467758e-01 8.6472690105438232e-01</leafValues></_>
    <_>
      <internalNodes>
        0 -1 125426 -3.5787855740636587e-03</internalNodes>
      <leafValues>
        7.4937039613723755e-01 -1.4050853252410889e-01</leafValues></_>
    <_>
      <internalNodes>
        0 -1 147432 -4.7276234254240990e-03</internalNodes>
      <leafValues>
        6.6403728723526001e-01 -1.9369705021381378e-01</leafValues></_>
    <_>
      <internalNodes>
        0 -1 70958 -2.8287938330322504e-03</internalNodes>
      <leafValues>
        -4.3530994653701782e-01 3.1145510077476501e-01</leafValues></_>
    <_>
      <internalNodes>
        0 -1 138341 -3.1079947948455811e-03</internalNodes>
      <leafValues>
        1. -1.2708027660846710e-01</leafValues></_>
    <_>
      <internalNodes>
        0 -1 162324 2.4635063018649817e-03</internalNodes>
      <leafValues>
        2.2206383943557739e-01 -6.7267334461212158e-01</leafValues></_>
    <_>
      <internalNodes>
        0 -1 105642 1.8503582105040550e-03</internalNodes>
      <leafValues>
        -1.6139094531536102e-01 8.8921582698822021e-01</leafValues></_></weakClassifiers></stage23>
</opencv_storage>
