<?xml version="1.0"?>
<opencv_storage>
<stage13>
  <maxWeakCount>13</maxWeakCount>
  <stageThreshold>-1.7883352935314178e-01</stageThreshold>
  <weakClassifiers>
    <_>
      <internalNodes>
        0 -1 52724 1.6572348773479462e-01</internalNodes>
      <leafValues>
        4.2028984427452087e-01 -6.6666668653488159e-01</leafValues></_>
    <_>
      <internalNodes>
        0 -1 94551 -4.6890862286090851e-02</internalNodes>
      <leafValues>
        8.7045729160308838e-01 -1.2387147545814514e-01</leafValues></_>
    <_>
      <internalNodes>
        0 -1 102370 -6.8862870335578918e-02</internalNodes>
      <leafValues>
        1. -1.4129899442195892e-01</leafValues></_>
    <_>
      <internalNodes>
        0 -1 110208 2.2011771798133850e-02</internalNodes>
      <leafValues>
        -1.4262837171554565e-01 9.2154049873352051e-01</leafValues></_>
    <_>
      <internalNodes>
        0 -1 4985 -4.9733580090105534e-04</internalNodes>
      <leafValues>
        -5.3664565086364746e-01 2.5369966030120850e-01</leafValues></_>
    <_>
      <internalNodes>
        0 -1 137108 6.4871711656451225e-03</internalNodes>
      <leafValues>
        -1.4342880249023438e-01 8.2444572448730469e-01</leafValues></_>
    <_>
      <internalNodes>
        0 -1 98732 1.9769719801843166e-03</internalNodes>
      <leafValues>
        2.0726706087589264e-01 -6.1263722181320190e-01</leafValues></_>
    <_>
      <internalNodes>
        0 -1 105654 -4.0204467950388789e-04</internalNodes>
      <leafValues>
        -3.4766939282417297e-01 3.2902756333351135e-01</leafValues></_>
    <_>
      <internalNodes>
        0 -1 149869 -1.1276376899331808e-03</internalNodes>
      <leafValues>
        5.2226811647415161e-01 -2.5502684712409973e-01</leafValues></_>
    <_>
      <internalNodes>
        0 -1 5955 2.5746375322341919e-03</internalNodes>
      <leafValues>
        2.0100042223930359e-01 -7.2505366802215576e-01</leafValues></_>
    <_>
      <internalNodes>
        0 -1 13184 -1.7124283476732671e-04</internalNodes>
      <leafValues>
        -4.1315117478370667e-01 4.2509064078330994e-01</leafValues></_>
    <_>
      <internalNodes>
        0 -1 113084 3.2155080698430538e-03</internalNodes>
      <leafValues>
        -1.9249634444713593e-01 8.4973400831222534e-01</leafValues></_>
    <_>
      <internalNodes>
        0 -1 131527 -2.5282660499215126e-03</internalNodes>
      <leafValues>
        7.7349162101745605e-01 -1.7821606993675232e-01</leafValues></_></weakClassifiers></stage13>
</opencv_storage>
