<?xml version="1.0"?>
<opencv_storage>
<stage22>
  <maxWeakCount>13</maxWeakCount>
  <stageThreshold>-8.0386257171630859e-01</stageThreshold>
  <weakClassifiers>
    <_>
      <internalNodes>
        0 -1 49459 1.5425838064402342e-03</internalNodes>
      <leafValues>
        4.1007193922996521e-01 -6.3636362552642822e-01</leafValues></_>
    <_>
      <internalNodes>
        0 -1 77219 2.6517011225223541e-02</internalNodes>
      <leafValues>
        -1.1779835075139999e-01 7.1876239776611328e-01</leafValues></_>
    <_>
      <internalNodes>
        0 -1 46916 7.5149722397327423e-03</internalNodes>
      <leafValues>
        -2.7590948343276978e-01 4.9695482850074768e-01</leafValues></_>
    <_>
      <internalNodes>
        0 -1 112451 -2.0910855382680893e-03</internalNodes>
      <leafValues>
        4.3742626905441284e-01 -2.9807353019714355e-01</leafValues></_>
    <_>
      <internalNodes>
        0 -1 19191 2.2625947371125221e-02</internalNodes>
      <leafValues>
        -2.4586232006549835e-01 4.8241519927978516e-01</leafValues></_>
    <_>
      <internalNodes>
        0 -1 43106 8.4515865892171860e-03</internalNodes>
      <leafValues>
        -2.4473246932029724e-01 5.0174874067306519e-01</leafValues></_>
    <_>
      <internalNodes>
        0 -1 31014 1.9882973283529282e-02</internalNodes>
      <leafValues>
        3.1943568587303162e-01 -3.6114761233329773e-01</leafValues></_>
    <_>
      <internalNodes>
        0 -1 134478 2.4322468787431717e-02</internalNodes>
      <leafValues>
        -3.0449113249778748e-01 4.5264461636543274e-01</leafValues></_>
    <_>
      <internalNodes>
        0 -1 58952 -6.1258347705006599e-03</internalNodes>
      <leafValues>
        6.0787677764892578e-01 -1.9698725640773773e-01</leafValues></_>
    <_>
      <internalNodes>
        0 -1 80469 3.5673036472871900e-04</internalNodes>
      <leafValues>
        -1.9199055433273315e-01 6.0758590698242188e-01</leafValues></_>
    <_>
      <internalNodes>
        0 -1 157308 5.8832895010709763e-03</internalNodes>
      <leafValues>
        -1.7586611211299896e-01 7.3914158344268799e-01</leafValues></_>
    <_>
      <internalNodes>
        0 -1 119635 5.6997372303158045e-04</internalNodes>
      <leafValues>
        -2.5614139437675476e-01 5.3630626201629639e-01</leafValues></_>
    <_>
      <internalNodes>
        0 -1 97398 -1.1070456821471453e-03</internalNodes>
      <leafValues>
        8.5309827327728271e-01 -1.4052526652812958e-01</leafValues></_></weakClassifiers></stage22>
</opencv_storage>
